<Nnet>
<Splice> 560 560
[ 0 ]
<AddShift> 560 560
<LearnRateCoef> 0 [ np.float32(-8.775882) np.float32(-9.040435) np.float32(-9.940767) np.float32(-10.787964) np.float32(-11.83013) np.float32(-12.651381) np.float32(-13.177065) np.float32(-13.354926) np.float32(-13.220046) np.float32(-12.863345) np.float32(-12.838384) np.float32(-12.92993) np.float32(-13.302641) np.float32(-13.579027) np.float32(-13.617239) np.float32(-13.560863) np.float32(-13.41821) np.float32(-13.252765) np.float32(-13.310838) np.float32(-13.080312) np.float32(-12.90457) np.float32(-13.093114) np.float32(-12.881522) np.float32(-13.000085) np.float32(-12.909956) np.float32(-12.981469) np.float32(-12.867202) np.float32(-12.921422) np.float32(-12.87907) np.float32(-12.879767) np.float32(-12.897832) np.float32(-12.91187) np.float32(-12.948635) np.float32(-13.017992) np.float32(-13.118643) np.float32(-13.245435) np.float32(-13.348763) np.float32(-13.434086) np.float32(-13.52419) np.float32(-13.478373) np.float32(-13.579941) np.float32(-13.542546) np.float32(-13.615374) np.float32(-13.605265) np.float32(-13.635247) np.float32(-13.682435) np.float32(-13.737463) np.float32(-13.795048) np.float32(-13.849425) np.float32(-13.926711) np.float32(-13.963255) np.float32(-14.008615) np.float32(-14.044286) np.float32(-14.08018) np.float32(-14.054548) np.float32(-14.0251665) np.float32(-14.010605) np.float32(-14.043511) np.float32(-14.12679) np.float32(-14.186274) np.float32(-14.265198) np.float32(-14.298629) np.float32(-14.324758) np.float32(-14.337519) np.float32(-14.339725) np.float32(-14.3350315) np.float32(-14.343472) np.float32(-14.357) np.float32(-14.321008) np.float32(-14.2514715) np.float32(-14.203511) np.float32(-14.219812) np.float32(-14.277565) np.float32(-14.330224) np.float32(-14.403255) np.float32(-14.454524) np.float32(-14.435497) np.float32(-14.315492) np.float32(-14.033995) np.float32(-13.29156) np.float32(-8.794985) np.float32(-9.062801) np.float32(-9.9642105) np.float32(-10.81199) np.float32(-11.854054) np.float32(-12.674982) np.float32(-13.2001) np.float32(-13.37809) np.float32(-13.2428255) np.float32(-12.885957) np.float32(-12.859864) np.float32(-12.9508705) np.float32(-13.323845) np.float32(-13.599621) np.float32(-13.637304) np.float32(-13.580594) np.float32(-13.437939) np.float32(-13.272256) np.float32(-13.329666) np.float32(-13.098419) np.float32(-12.922371) np.float32(-13.11086) np.float32(-12.899415) np.float32(-13.017321) np.float32(-12.926717) np.float32(-12.99803) np.float32(-12.884485) np.float32(-12.938584) np.float32(-12.896417) np.float32(-12.896456) np.float32(-12.914375) np.float32(-12.928565) np.float32(-12.964941) np.float32(-13.03384) np.float32(-13.134353) np.float32(-13.262024) np.float32(-13.364714) np.float32(-13.4496975) np.float32(-13.540188) np.float32(-13.494272) np.float32(-13.5957155) np.float32(-13.5580845) np.float32(-13.631372) np.float32(-13.620938) np.float32(-13.6502285) np.float32(-13.697147) np.float32(-13.751716) np.float32(-13.809709) np.float32(-13.86439) np.float32(-13.941141) np.float32(-13.977387) np.float32(-14.022631) np.float32(-14.0582695) np.float32(-14.093955) np.float32(-14.067674) np.float32(-14.038538) np.float32(-14.0239) np.float32(-14.057021) np.float32(-14.140155) np.float32(-14.19893) np.float32(-14.277361) np.float32(-14.311309) np.float32(-14.337739) np.float32(-14.349959) np.float32(-14.352136) np.float32(-14.34739) np.float32(-14.355849) np.float32(-14.369159) np.float32(-14.332961) np.float32(-14.26277) np.float32(-14.214689) np.float32(-14.231143) np.float32(-14.288725) np.float32(-14.34107) np.float32(-14.413911) np.float32(-14.46534) np.float32(-14.446351) np.float32(-14.326031) np.float32(-14.043773) np.float32(-13.299511) np.float32(-8.807048) np.float32(-9.074122) np.float32(-9.974985) np.float32(-10.822024) np.float32(-11.863538) np.float32(-12.684092) np.float32(-13.208652) np.float32(-13.385954) np.float32(-13.250966) np.float32(-12.894202) np.float32(-12.868675) np.float32(-12.959557) np.float32(-13.331374) np.float32(-13.607315) np.float32(-13.645053) np.float32(-13.588527) np.float32(-13.445573) np.float32(-13.2796135) np.float32(-13.33739) np.float32(-13.105788) np.float32(-12.929071) np.float32(-13.117057) np.float32(-12.905387) np.float32(-13.023735) np.float32(-12.933135) np.float32(-13.003906) np.float32(-12.890304) np.float32(-12.944301) np.float32(-12.901883) np.float32(-12.901802) np.float32(-12.919542) np.float32(-12.933962) np.float32(-12.970577) np.float32(-13.039847) np.float32(-13.14034) np.float32(-13.267545) np.float32(-13.370544) np.float32(-13.455751) np.float32(-13.545993) np.float32(-13.499917) np.float32(-13.601354) np.float32(-13.563872) np.float32(-13.636944) np.float32(-13.626079) np.float32(-13.655056) np.float32(-13.702191) np.float32(-13.757247) np.float32(-13.8142185) np.float32(-13.868894) np.float32(-13.945899) np.float32(-13.982251) np.float32(-14.027343) np.float32(-14.063133) np.float32(-14.099067) np.float32(-14.072651) np.float32(-14.043435) np.float32(-14.028427) np.float32(-14.061308) np.float32(-14.144272) np.float32(-14.203321) np.float32(-14.282248) np.float32(-14.316432) np.float32(-14.342492) np.float32(-14.355077) np.float32(-14.357266) np.float32(-14.35269) np.float32(-14.36068) np.float32(-14.374009) np.float32(-14.337595) np.float32(-14.267443) np.float32(-14.219186) np.float32(-14.235853) np.float32(-14.293663) np.float32(-14.345818) np.float32(-14.41845) np.float32(-14.470018) np.float32(-14.450895) np.float32(-14.33063) np.float32(-14.047991) np.float32(-13.303075) np.float32(-8.815083) np.float32(-9.081713) np.float32(-9.983102) np.float32(-10.829966) np.float32(-11.872344) np.float32(-12.693374) np.float32(-13.218661) np.float32(-13.395967) np.float32(-13.260363) np.float32(-12.902282) np.float32(-12.876968) np.float32(-12.967764) np.float32(-13.340099) np.float32(-13.615841) np.float32(-13.6532545) np.float32(-13.596668) np.float32(-13.453372) np.float32(-13.286908) np.float32(-13.345005) np.float32(-13.1131) np.float32(-12.936417) np.float32(-13.124357) np.float32(-12.912055) np.float32(-13.029862) np.float32(-12.939233) np.float32(-13.010087) np.float32(-12.896161) np.float32(-12.950054) np.float32(-12.907435) np.float32(-12.907312) np.float32(-12.925091) np.float32(-12.939291) np.float32(-12.976119) np.float32(-13.045094) np.float32(-13.145493) np.float32(-13.27268) np.float32(-13.3758135) np.float32(-13.461188) np.float32(-13.55129) np.float32(-13.505494) np.float32(-13.606999) np.float32(-13.569298) np.float32(-13.641951) np.float32(-13.631078) np.float32(-13.660479) np.float32(-13.707348) np.float32(-13.762186) np.float32(-13.819522) np.float32(-13.873867) np.float32(-13.950647) np.float32(-13.987181) np.float32(-14.032783) np.float32(-14.068108) np.float32(-14.103669) np.float32(-14.077062) np.float32(-14.047673) np.float32(-14.032881) np.float32(-14.065267) np.float32(-14.148584) np.float32(-14.207744) np.float32(-14.286616) np.float32(-14.320557) np.float32(-14.346932) np.float32(-14.359485) np.float32(-14.361569) np.float32(-14.357009) np.float32(-14.364822) np.float32(-14.37787) np.float32(-14.341715) np.float32(-14.271678) np.float32(-14.223405) np.float32(-14.23993) np.float32(-14.297499) np.float32(-14.349456) np.float32(-14.421803) np.float32(-14.473187) np.float32(-14.454013) np.float32(-14.33358) np.float32(-14.050825) np.float32(-13.305195) np.float32(-8.826629) np.float32(-9.093349) np.float32(-9.995238) np.float32(-10.842808) np.float32(-11.884586) np.float32(-12.704973) np.float32(-13.230095) np.float32(-13.407603) np.float32(-13.272054) np.float32(-12.913802) np.float32(-12.887329) np.float32(-12.977899) np.float32(-13.349866) np.float32(-13.625856) np.float32(-13.663107) np.float32(-13.605834) np.float32(-13.462472) np.float32(-13.296021) np.float32(-13.353401) np.float32(-13.121856) np.float32(-12.944963) np.float32(-13.13215) np.float32(-12.920107) np.float32(-13.037926) np.float32(-12.947186) np.float32(-13.017849) np.float32(-12.903415) np.float32(-12.95761) np.float32(-12.914678) np.float32(-12.914741) np.float32(-12.932599) np.float32(-12.9465885) np.float32(-12.982831) np.float32(-13.052253) np.float32(-13.152494) np.float32(-13.279624) np.float32(-13.383168) np.float32(-13.468233) np.float32(-13.558382) np.float32(-13.512336) np.float32(-13.613199) np.float32(-13.575628) np.float32(-13.648378) np.float32(-13.637061) np.float32(-13.666795) np.float32(-13.713073) np.float32(-13.768013) np.float32(-13.825267) np.float32(-13.879763) np.float32(-13.9564295) np.float32(-13.992863) np.float32(-14.037717) np.float32(-14.073693) np.float32(-14.109084) np.float32(-14.082566) np.float32(-14.052944) np.float32(-14.038111) np.float32(-14.070601) np.float32(-14.153576) np.float32(-14.212676) np.float32(-14.291422) np.float32(-14.325336) np.float32(-14.351571) np.float32(-14.363974) np.float32(-14.365999) np.float32(-14.361365) np.float32(-14.369437) np.float32(-14.382987) np.float32(-14.346249) np.float32(-14.276341) np.float32(-14.22776) np.float32(-14.243836) np.float32(-14.301173) np.float32(-14.35341) np.float32(-14.426039) np.float32(-14.477613) np.float32(-14.457982) np.float32(-14.33724) np.float32(-14.054058) np.float32(-13.307563) np.float32(-8.839578) np.float32(-9.107064) np.float32(-10.008815) np.float32(-10.856298) np.float32(-11.898279) np.float32(-12.718806) np.float32(-13.243833) np.float32(-13.420382) np.float32(-13.284276) np.float32(-12.926168) np.float32(-12.899848) np.float32(-12.98994) np.float32(-13.36132) np.float32(-13.636869) np.float32(-13.67392) np.float32(-13.616527) np.float32(-13.472498) np.float32(-13.305712) np.float32(-13.362955) np.float32(-13.131066) np.float32(-12.953796) np.float32(-13.141438) np.float32(-12.929056) np.float32(-13.046833) np.float32(-12.955977) np.float32(-13.02747) np.float32(-12.912621) np.float32(-12.965897) np.float32(-12.922992) np.float32(-12.922643) np.float32(-12.940705) np.float32(-12.954346) np.float32(-12.990483) np.float32(-13.060108) np.float32(-13.160437) np.float32(-13.287297) np.float32(-13.390455) np.float32(-13.475323) np.float32(-13.565169) np.float32(-13.519324) np.float32(-13.620227) np.float32(-13.582582) np.float32(-13.655109) np.float32(-13.643957) np.float32(-13.673303) np.float32(-13.719725) np.float32(-13.774418) np.float32(-13.831524) np.float32(-13.886072) np.float32(-13.962891) np.float32(-13.999129) np.float32(-14.043974) np.float32(-14.079624) np.float32(-14.1152525) np.float32(-14.088656) np.float32(-14.058612) np.float32(-14.043747) np.float32(-14.076348) np.float32(-14.159218) np.float32(-14.21802) np.float32(-14.29677) np.float32(-14.330709) np.float32(-14.356436) np.float32(-14.368575) np.float32(-14.370617) np.float32(-14.365648) np.float32(-14.374178) np.float32(-14.387133) np.float32(-14.350652) np.float32(-14.280702) np.float32(-14.23245) np.float32(-14.248284) np.float32(-14.305841) np.float32(-14.357766) np.float32(-14.430251) np.float32(-14.481378) np.float32(-14.462113) np.float32(-14.3411045) np.float32(-14.057519) np.float32(-13.31031) np.float32(-8.869565) np.float32(-9.13603) np.float32(-10.039301) np.float32(-10.886853) np.float32(-11.929026) np.float32(-12.749451) np.float32(-13.274053) np.float32(-13.450352) np.float32(-13.313483) np.float32(-12.954673) np.float32(-12.928467) np.float32(-13.018459) np.float32(-13.388884) np.float32(-13.663599) np.float32(-13.699828) np.float32(-13.641654) np.float32(-13.497535) np.float32(-13.330043) np.float32(-13.386577) np.float32(-13.154062) np.float32(-12.977105) np.float32(-13.164516) np.float32(-12.951865) np.float32(-13.069447) np.float32(-12.978478) np.float32(-13.04863) np.float32(-12.933585) np.float32(-12.987102) np.float32(-12.944237) np.float32(-12.943686) np.float32(-12.960891) np.float32(-12.974459) np.float32(-13.01037) np.float32(-13.079849) np.float32(-13.179753) np.float32(-13.306846) np.float32(-13.409957) np.float32(-13.494503) np.float32(-13.584013) np.float32(-13.53772) np.float32(-13.638578) np.float32(-13.600355) np.float32(-13.672774) np.float32(-13.661367) np.float32(-13.690274) np.float32(-13.736622) np.float32(-13.790954) np.float32(-13.847883) np.float32(-13.901576) np.float32(-13.978096) np.float32(-14.013988) np.float32(-14.058661) np.float32(-14.093767) np.float32(-14.128855) np.float32(-14.102342) np.float32(-14.072115) np.float32(-14.056904) np.float32(-14.089729) np.float32(-14.1723) np.float32(-14.231155) np.float32(-14.309537) np.float32(-14.342393) np.float32(-14.367835) np.float32(-14.380066) np.float32(-14.38146) np.float32(-14.376627) np.float32(-14.384929) np.float32(-14.398424) np.float32(-14.361282) np.float32(-14.290589) np.float32(-14.242042) np.float32(-14.257793) np.float32(-14.315217) np.float32(-14.366888) np.float32(-14.439378) np.float32(-14.490331) np.float32(-14.470278) np.float32(-14.348662) np.float32(-14.064293) np.float32(-13.316078) ]
<Rescale> 560 560
<LearnRateCoef> 0 [ np.float32(0.2707128) np.float32(0.2719951) np.float32(0.25378492) np.float32(0.24132924) np.float32(0.22249517) np.float32(0.2075699) np.float32(0.19728225) np.float32(0.1916034) np.float32(0.19651663) np.float32(0.20862684) np.float32(0.2165544) np.float32(0.21749285) np.float32(0.21282472) np.float32(0.2087663) np.float32(0.2089856) np.float32(0.21269651) np.float32(0.2178744) np.float32(0.22301309) np.float32(0.22709058) np.float32(0.23078662) np.float32(0.23379718) np.float32(0.23640724) np.float32(0.23950328) np.float32(0.24228176) np.float32(0.24521264) np.float32(0.24907932) np.float32(0.25274143) np.float32(0.25647658) np.float32(0.26026222) np.float32(0.26317555) np.float32(0.26595196) np.float32(0.26858488) np.float32(0.27082944) np.float32(0.272059) np.float32(0.27221984) np.float32(0.27122372) np.float32(0.27119297) np.float32(0.27225465) np.float32(0.27378112) np.float32(0.27602974) np.float32(0.27878806) np.float32(0.28086457) np.float32(0.28300443) np.float32(0.2845523) np.float32(0.2848615) np.float32(0.28457323) np.float32(0.2837747) np.float32(0.28244632) np.float32(0.2812343) np.float32(0.28026474) np.float32(0.27891228) np.float32(0.27767032) np.float32(0.27719867) np.float32(0.27842653) np.float32(0.2812618) np.float32(0.28504032) np.float32(0.28797093) np.float32(0.28871515) np.float32(0.28763446) np.float32(0.28493947) np.float32(0.2818066) np.float32(0.27892387) np.float32(0.2777821) np.float32(0.277953) np.float32(0.27838275) np.float32(0.27870792) np.float32(0.27880955) np.float32(0.27845109) np.float32(0.2790904) np.float32(0.2794923) np.float32(0.27932322) np.float32(0.27786982) np.float32(0.27548534) np.float32(0.2728957) np.float32(0.27074397) np.float32(0.26965198) np.float32(0.26929843) np.float32(0.26955286) np.float32(0.27227402) np.float32(0.28501558) np.float32(0.2725152) np.float32(0.27387473) np.float32(0.25559035) np.float32(0.2430747) np.float32(0.22400655) np.float32(0.20889233) np.float32(0.19847353) np.float32(0.19271149) np.float32(0.19760764) np.float32(0.20982324) np.float32(0.2178139) np.float32(0.21872707) np.float32(0.21401855) np.float32(0.20992352) np.float32(0.2101244) np.float32(0.21383457) np.float32(0.21904974) np.float32(0.22420242) np.float32(0.22833528) np.float32(0.23203032) np.float32(0.23504029) np.float32(0.23760186) np.float32(0.2407188) np.float32(0.24348982) np.float32(0.24637455) np.float32(0.25030872) np.float32(0.25403765) np.float32(0.25775564) np.float32(0.2616072) np.float32(0.26446688) np.float32(0.2672234) np.float32(0.26995704) np.float32(0.27209648) np.float32(0.27342984) np.float32(0.2734501) np.float32(0.27252725) np.float32(0.27250487) np.float32(0.27358532) np.float32(0.2751532) np.float32(0.27737632) np.float32(0.2802189) np.float32(0.2822207) np.float32(0.28448343) np.float32(0.28596675) np.float32(0.28622743) np.float32(0.2859286) np.float32(0.28495872) np.float32(0.2837747) np.float32(0.2825282) np.float32(0.28154844) np.float32(0.28014538) np.float32(0.27882013) np.float32(0.2784134) np.float32(0.27947465) np.float32(0.2824049) np.float32(0.2862024) np.float32(0.28916976) np.float32(0.28996927) np.float32(0.28873977) np.float32(0.28599888) np.float32(0.28289038) np.float32(0.28001848) np.float32(0.27886412) np.float32(0.27893746) np.float32(0.279345) np.float32(0.27966186) np.float32(0.2797906) np.float32(0.27943003) np.float32(0.27995938) np.float32(0.28039312) np.float32(0.2801568) np.float32(0.27872738) np.float32(0.27621028) np.float32(0.27357987) np.float32(0.2714954) np.float32(0.2703839) np.float32(0.27003965) np.float32(0.27023575) np.float32(0.27285647) np.float32(0.2854843) np.float32(0.27385876) np.float32(0.27521902) np.float32(0.25682017) np.float32(0.24419779) np.float32(0.22495927) np.float32(0.20971535) np.float32(0.1991387) np.float32(0.1932735) np.float32(0.19822086) np.float32(0.21051393) np.float32(0.21857394) np.float32(0.21945317) np.float32(0.21467687) np.float32(0.21053755) np.float32(0.21069787) np.float32(0.21443726) np.float32(0.21966596) np.float32(0.22476643) np.float32(0.22897995) np.float32(0.23266874) np.float32(0.23569506) np.float32(0.2382543) np.float32(0.241325) np.float32(0.24414822) np.float32(0.24704923) np.float32(0.2509571) np.float32(0.25471815) np.float32(0.25844732) np.float32(0.26224086) np.float32(0.2650916) np.float32(0.26792318) np.float32(0.2706284) np.float32(0.27283847) np.float32(0.27413833) np.float32(0.27415752) np.float32(0.27324536) np.float32(0.27321675) np.float32(0.27425346) np.float32(0.27582765) np.float32(0.2780694) np.float32(0.28090024) np.float32(0.28292805) np.float32(0.2851577) np.float32(0.28661647) np.float32(0.28683874) np.float32(0.2865432) np.float32(0.2856716) np.float32(0.28438547) np.float32(0.28305927) np.float32(0.28212112) np.float32(0.2806842) np.float32(0.27932805) np.float32(0.2789045) np.float32(0.2800369) np.float32(0.28292006) np.float32(0.28674245) np.float32(0.28962964) np.float32(0.29044756) np.float32(0.28919816) np.float32(0.28645223) np.float32(0.28332454) np.float32(0.28041518) np.float32(0.27923116) np.float32(0.27939808) np.float32(0.27971527) np.float32(0.28002518) np.float32(0.28007078) np.float32(0.27978742) np.float32(0.28033075) np.float32(0.28074715) np.float32(0.28049293) np.float32(0.27901977) np.float32(0.276601) np.float32(0.27396575) np.float32(0.2717904) np.float32(0.27068162) np.float32(0.27032462) np.float32(0.27056125) np.float32(0.27310944) np.float32(0.28577498) np.float32(0.27500972) np.float32(0.27624205) np.float32(0.25776666) np.float32(0.24505849) np.float32(0.22569805) np.float32(0.2103346) np.float32(0.19972013) np.float32(0.1938154) np.float32(0.19876812) np.float32(0.21110983) np.float32(0.21922131) np.float32(0.22010599) np.float32(0.21526192) np.float32(0.21108064) np.float32(0.21125074) np.float32(0.21500151) np.float32(0.22026049) np.float32(0.22536023) np.float32(0.22959808) np.float32(0.23323585) np.float32(0.23625165) np.float32(0.23885253) np.float32(0.24189639) np.float32(0.2447079) np.float32(0.24762808) np.float32(0.25157535) np.float32(0.25529066) np.float32(0.25906062) np.float32(0.26288205) np.float32(0.26575398) np.float32(0.26859123) np.float32(0.27127746) np.float32(0.27349928) np.float32(0.27476257) np.float32(0.27481386) np.float32(0.27387497) np.float32(0.2738137) np.float32(0.2748991) np.float32(0.27642226) np.float32(0.27869552) np.float32(0.28155184) np.float32(0.28354275) np.float32(0.28580028) np.float32(0.28721273) np.float32(0.28741103) np.float32(0.2871773) np.float32(0.28628415) np.float32(0.28495958) np.float32(0.28365535) np.float32(0.2826556) np.float32(0.28124535) np.float32(0.27992406) np.float32(0.2793721) np.float32(0.2805394) np.float32(0.28344506) np.float32(0.2872362) np.float32(0.29018807) np.float32(0.2908676) np.float32(0.2897569) np.float32(0.28695965) np.float32(0.28379142) np.float32(0.28083432) np.float32(0.27964017) np.float32(0.2797769) np.float32(0.2800805) np.float32(0.2804468) np.float32(0.28053147) np.float32(0.2801605) np.float32(0.2806889) np.float32(0.28112727) np.float32(0.2808661) np.float32(0.27939293) np.float32(0.27692997) np.float32(0.27426982) np.float32(0.27205393) np.float32(0.27093452) np.float32(0.2705386) np.float32(0.27077353) np.float32(0.2733273) np.float32(0.28584677) np.float32(0.27668998) np.float32(0.27788708) np.float32(0.2591539) np.float32(0.2463336) np.float32(0.22678582) np.float32(0.21123846) np.float32(0.20053713) np.float32(0.1945769) np.float32(0.19956467) np.float32(0.21197341) np.float32(0.22011688) np.float32(0.22094037) np.float32(0.21606116) np.float32(0.21184243) np.float32(0.21196643) np.float32(0.21569715) np.float32(0.22101313) np.float32(0.22618698) np.float32(0.2303347) np.float32(0.23401842) np.float32(0.23699905) np.float32(0.23954806) np.float32(0.24268773) np.float32(0.24552381) np.float32(0.24841145) np.float32(0.25228557) np.float32(0.2560284) np.float32(0.2598551) np.float32(0.26366124) np.float32(0.26651344) np.float32(0.26934004) np.float32(0.27206483) np.float32(0.27419555) np.float32(0.27556098) np.float32(0.27559403) np.float32(0.2746138) np.float32(0.27455267) np.float32(0.27564034) np.float32(0.27722827) np.float32(0.27944916) np.float32(0.28222755) np.float32(0.2842396) np.float32(0.2865134) np.float32(0.2878713) np.float32(0.28818306) np.float32(0.2878151) np.float32(0.2869775) np.float32(0.28557664) np.float32(0.2842976) np.float32(0.28327304) np.float32(0.28178936) np.float32(0.2805197) np.float32(0.27994397) np.float32(0.28105798) np.float32(0.28396213) np.float32(0.28778216) np.float32(0.29070118) np.float32(0.29140112) np.float32(0.2902927) np.float32(0.28748786) np.float32(0.28425026) np.float32(0.2812815) np.float32(0.28005502) np.float32(0.2802172) np.float32(0.28053686) np.float32(0.28082857) np.float32(0.28095403) np.float32(0.28061405) np.float32(0.28113356) np.float32(0.2815023) np.float32(0.2811544) np.float32(0.27971143) np.float32(0.2772029) np.float32(0.2745937) np.float32(0.27241072) np.float32(0.2712607) np.float32(0.27085155) np.float32(0.27102926) np.float32(0.27362734) np.float32(0.28599834) np.float32(0.27865458) np.float32(0.2798573) np.float32(0.26088312) np.float32(0.2479243) np.float32(0.22810383) np.float32(0.21239628) np.float32(0.20155242) np.float32(0.19547978) np.float32(0.20044215) np.float32(0.21297115) np.float32(0.22118548) np.float32(0.22201663) np.float32(0.21703957) np.float32(0.21275906) np.float32(0.21287525) np.float32(0.21662712) np.float32(0.22190392) np.float32(0.22708301) np.float32(0.23124526) np.float32(0.23487078) np.float32(0.23787601) np.float32(0.24047887) np.float32(0.24361393) np.float32(0.24640365) np.float32(0.2493371) np.float32(0.25329828) np.float32(0.2569952) np.float32(0.2607372) np.float32(0.26460758) np.float32(0.26748332) np.float32(0.2703364) np.float32(0.27303424) np.float32(0.27520996) np.float32(0.2765327) np.float32(0.27657256) np.float32(0.2755747) np.float32(0.2754879) np.float32(0.27653205) np.float32(0.278044) np.float32(0.28036016) np.float32(0.28320006) np.float32(0.28520975) np.float32(0.28746197) np.float32(0.28882962) np.float32(0.28908896) np.float32(0.28873864) np.float32(0.28779745) np.float32(0.28632805) np.float32(0.2851234) np.float32(0.28400072) np.float32(0.2825435) np.float32(0.28118798) np.float32(0.2806493) np.float32(0.28182778) np.float32(0.28468776) np.float32(0.28846705) np.float32(0.29137602) np.float32(0.29219937) np.float32(0.2909397) np.float32(0.28808632) np.float32(0.28489625) np.float32(0.28187954) np.float32(0.28060496) np.float32(0.28076795) np.float32(0.2811005) np.float32(0.28141317) np.float32(0.28155798) np.float32(0.28106) np.float32(0.2815745) np.float32(0.2819965) np.float32(0.28168678) np.float32(0.28007814) np.float32(0.27765337) np.float32(0.27494237) np.float32(0.2727759) np.float32(0.2715785) np.float32(0.27122495) np.float32(0.27134573) np.float32(0.27390805) np.float32(0.28625515) np.float32(0.2827284) np.float32(0.28371847) np.float32(0.2643073) np.float32(0.2511069) np.float32(0.2309121) np.float32(0.2148393) np.float32(0.2037285) np.float32(0.1974497) np.float32(0.20248748) np.float32(0.21521999) np.float32(0.22359955) np.float32(0.22443132) np.float32(0.21929465) np.float32(0.21485509) np.float32(0.21490741) np.float32(0.2186751) np.float32(0.2240159) np.float32(0.22920047) np.float32(0.23338448) np.float32(0.23699945) np.float32(0.23999734) np.float32(0.24264215) np.float32(0.24573502) np.float32(0.24853338) np.float32(0.2514868) np.float32(0.2553991) np.float32(0.25915352) np.float32(0.26299134) np.float32(0.2669237) np.float32(0.26979464) np.float32(0.27254656) np.float32(0.27524653) np.float32(0.2774514) np.float32(0.2788049) np.float32(0.27876756) np.float32(0.27778623) np.float32(0.27774796) np.float32(0.27876723) np.float32(0.2802889) np.float32(0.28257722) np.float32(0.28538743) np.float32(0.28737554) np.float32(0.28967005) np.float32(0.2910602) np.float32(0.29123476) np.float32(0.29081485) np.float32(0.28986868) np.float32(0.28831992) np.float32(0.28693298) np.float32(0.28581363) np.float32(0.28429288) np.float32(0.28282234) np.float32(0.2822459) np.float32(0.28337574) np.float32(0.28625482) np.float32(0.29002714) np.float32(0.29291192) np.float32(0.29373062) np.float32(0.29244828) np.float32(0.2895196) np.float32(0.28625) np.float32(0.2831446) np.float32(0.28183886) np.float32(0.2819674) np.float32(0.28220373) np.float32(0.28254813) np.float32(0.28257775) np.float32(0.28223494) np.float32(0.28261682) np.float32(0.28281906) np.float32(0.28253904) np.float32(0.28099024) np.float32(0.2784552) np.float32(0.27568477) np.float32(0.2734595) np.float32(0.27235383) np.float32(0.2718612) np.float32(0.2719182) np.float32(0.27433455) np.float32(0.28665596) ]
</Nnet>
